digraph Tree {
node [shape=box] ;
0 [label="X[13] <= 2.5\ngini = 0.9113\nsamples = 491\nvalue = [13, 69, 33, 14, 15, 66, 25, 9, 13, 11, 17, 11\n68, 7, 16, 60, 16, 16, 12]"] ;
1 [label="X[27] <= 0.5\ngini = 0.8763\nsamples = 231\nvalue = [13, 0, 33, 0, 12, 0, 21, 9, 13, 11, 17, 0, 0\n7, 0, 60, 16, 7, 12]"] ;
0 -> 1 [labeldistance=2.5, labelangle=45, headlabel="True"] ;
2 [label="X[23] <= 0.5\ngini = 0.3436\nsamples = 59\nvalue = [13, 0, 0, 0, 0, 0, 0, 0, 0, 0, 0, 0, 0, 0\n0, 46, 0, 0, 0]"] ;
1 -> 2 ;
3 [label="gini = 0.0\nsamples = 13\nvalue = [13, 0, 0, 0, 0, 0, 0, 0, 0, 0, 0, 0, 0, 0\n0, 0, 0, 0, 0]"] ;
2 -> 3 ;
4 [label="gini = 0.0\nsamples = 46\nvalue = [0, 0, 0, 0, 0, 0, 0, 0, 0, 0, 0, 0, 0, 0, 0\n46, 0, 0, 0]"] ;
2 -> 4 ;
5 [label="X[27] <= 1.5\ngini = 0.8976\nsamples = 172\nvalue = [0, 0, 33, 0, 12, 0, 21, 9, 13, 11, 17, 0, 0\n7, 0, 14, 16, 7, 12]"] ;
1 -> 5 ;
6 [label="X[21] <= 2.5\ngini = 0.4271\nsamples = 41\nvalue = [0, 0, 29, 0, 0, 0, 0, 0, 0, 11, 0, 0, 0, 0\n0, 0, 0, 1, 0]"] ;
5 -> 6 ;
7 [label="gini = 0.0\nsamples = 29\nvalue = [0, 0, 29, 0, 0, 0, 0, 0, 0, 0, 0, 0, 0, 0\n0, 0, 0, 0, 0]"] ;
6 -> 7 ;
8 [label="X[17] <= 0.5\ngini = 0.1528\nsamples = 12\nvalue = [0, 0, 0, 0, 0, 0, 0, 0, 0, 11, 0, 0, 0, 0\n0, 0, 0, 1, 0]"] ;
6 -> 8 ;
9 [label="gini = 0.0\nsamples = 11\nvalue = [0, 0, 0, 0, 0, 0, 0, 0, 0, 11, 0, 0, 0, 0\n0, 0, 0, 0, 0]"] ;
8 -> 9 ;
10 [label="gini = 0.0\nsamples = 1\nvalue = [0, 0, 0, 0, 0, 0, 0, 0, 0, 0, 0, 0, 0, 0, 0\n0, 0, 1, 0]"] ;
8 -> 10 ;
11 [label="X[22] <= 1.5\ngini = 0.8939\nsamples = 131\nvalue = [0, 0, 4, 0, 12, 0, 21, 9, 13, 0, 17, 0, 0, 7\n0, 14, 16, 6, 12]"] ;
5 -> 11 ;
12 [label="X[17] <= 2.0\ngini = 0.8821\nsamples = 114\nvalue = [0, 0, 4, 0, 12, 0, 21, 9, 13, 0, 0, 0, 0, 7\n0, 14, 16, 6, 12]"] ;
11 -> 12 ;
13 [label="X[21] <= 2.5\ngini = 0.8671\nsamples = 98\nvalue = [0, 0, 4, 0, 12, 0, 21, 9, 13, 0, 0, 0, 0, 7\n0, 14, 0, 6, 12]"] ;
12 -> 13 ;
14 [label="X[1] <= 0.5\ngini = 0.7704\nsamples = 50\nvalue = [0, 0, 4, 0, 0, 0, 0, 0, 13, 0, 0, 0, 0, 7\n0, 14, 0, 0, 12]"] ;
13 -> 14 ;
15 [label="gini = 0.0\nsamples = 13\nvalue = [0, 0, 0, 0, 0, 0, 0, 0, 13, 0, 0, 0, 0, 0\n0, 0, 0, 0, 0]"] ;
14 -> 15 ;
16 [label="X[11] <= 0.5\ngini = 0.7042\nsamples = 37\nvalue = [0, 0, 4, 0, 0, 0, 0, 0, 0, 0, 0, 0, 0, 7, 0\n14, 0, 0, 12]"] ;
14 -> 16 ;
17 [label="X[28] <= 2.5\ngini = 0.5824\nsamples = 25\nvalue = [0, 0, 4, 0, 0, 0, 0, 0, 0, 0, 0, 0, 0, 7, 0\n14, 0, 0, 0]"] ;
16 -> 17 ;
18 [label="X[30] <= 0.5\ngini = 0.4628\nsamples = 11\nvalue = [0, 0, 4, 0, 0, 0, 0, 0, 0, 0, 0, 0, 0, 7, 0\n0, 0, 0, 0]"] ;
17 -> 18 ;
19 [label="gini = 0.0\nsamples = 7\nvalue = [0, 0, 0, 0, 0, 0, 0, 0, 0, 0, 0, 0, 0, 7, 0\n0, 0, 0, 0]"] ;
18 -> 19 ;
20 [label="gini = 0.0\nsamples = 4\nvalue = [0, 0, 4, 0, 0, 0, 0, 0, 0, 0, 0, 0, 0, 0, 0\n0, 0, 0, 0]"] ;
18 -> 20 ;
21 [label="gini = 0.0\nsamples = 14\nvalue = [0, 0, 0, 0, 0, 0, 0, 0, 0, 0, 0, 0, 0, 0, 0\n14, 0, 0, 0]"] ;
17 -> 21 ;
22 [label="gini = 0.0\nsamples = 12\nvalue = [0, 0, 0, 0, 0, 0, 0, 0, 0, 0, 0, 0, 0, 0, 0\n0, 0, 0, 12]"] ;
16 -> 22 ;
23 [label="X[13] <= 1.5\ngini = 0.6953\nsamples = 48\nvalue = [0, 0, 0, 0, 12, 0, 21, 9, 0, 0, 0, 0, 0, 0\n0, 0, 0, 6, 0]"] ;
13 -> 23 ;
24 [label="X[25] <= 1.5\ngini = 0.5694\nsamples = 36\nvalue = [0, 0, 0, 0, 0, 0, 21, 9, 0, 0, 0, 0, 0, 0\n0, 0, 0, 6, 0]"] ;
23 -> 24 ;
25 [label="gini = 0.0\nsamples = 9\nvalue = [0, 0, 0, 0, 0, 0, 0, 9, 0, 0, 0, 0, 0, 0, 0\n0, 0, 0, 0]"] ;
24 -> 25 ;
26 [label="X[2] <= 1.5\ngini = 0.3457\nsamples = 27\nvalue = [0, 0, 0, 0, 0, 0, 21, 0, 0, 0, 0, 0, 0, 0\n0, 0, 0, 6, 0]"] ;
24 -> 26 ;
27 [label="gini = 0.0\nsamples = 6\nvalue = [0, 0, 0, 0, 0, 0, 0, 0, 0, 0, 0, 0, 0, 0, 0\n0, 0, 6, 0]"] ;
26 -> 27 ;
28 [label="gini = 0.0\nsamples = 21\nvalue = [0, 0, 0, 0, 0, 0, 21, 0, 0, 0, 0, 0, 0, 0\n0, 0, 0, 0, 0]"] ;
26 -> 28 ;
29 [label="gini = 0.0\nsamples = 12\nvalue = [0, 0, 0, 0, 12, 0, 0, 0, 0, 0, 0, 0, 0, 0\n0, 0, 0, 0, 0]"] ;
23 -> 29 ;
30 [label="gini = 0.0\nsamples = 16\nvalue = [0, 0, 0, 0, 0, 0, 0, 0, 0, 0, 0, 0, 0, 0, 0\n0, 16, 0, 0]"] ;
12 -> 30 ;
31 [label="gini = 0.0\nsamples = 17\nvalue = [0, 0, 0, 0, 0, 0, 0, 0, 0, 0, 17, 0, 0, 0\n0, 0, 0, 0, 0]"] ;
11 -> 31 ;
32 [label="X[27] <= 2.5\ngini = 0.7867\nsamples = 260\nvalue = [0, 69, 0, 14, 3, 66, 4, 0, 0, 0, 0, 11, 68, 0\n16, 0, 0, 9, 0]"] ;
0 -> 32 [labeldistance=2.5, labelangle=-45, headlabel="False"] ;
33 [label="X[14] <= 2.5\ngini = 0.2524\nsamples = 54\nvalue = [0, 0, 0, 0, 0, 0, 0, 0, 0, 0, 0, 0, 46, 0\n0, 0, 0, 8, 0]"] ;
32 -> 33 ;
34 [label="gini = 0.0\nsamples = 46\nvalue = [0, 0, 0, 0, 0, 0, 0, 0, 0, 0, 0, 0, 46, 0\n0, 0, 0, 0, 0]"] ;
33 -> 34 ;
35 [label="gini = 0.0\nsamples = 8\nvalue = [0, 0, 0, 0, 0, 0, 0, 0, 0, 0, 0, 0, 0, 0, 0\n0, 0, 8, 0]"] ;
33 -> 35 ;
36 [label="X[0] <= 5.5\ngini = 0.7596\nsamples = 206\nvalue = [0, 69, 0, 14, 3, 66, 4, 0, 0, 0, 0, 11, 22, 0\n16, 0, 0, 1, 0]"] ;
32 -> 36 ;
37 [label="X[14] <= 2.5\ngini = 0.7449\nsamples = 134\nvalue = [0, 16, 0, 12, 3, 60, 3, 0, 0, 0, 0, 7, 16, 0\n16, 0, 0, 1, 0]"] ;
36 -> 37 ;
38 [label="X[0] <= 3.5\ngini = 0.6821\nsamples = 118\nvalue = [0, 16, 0, 0, 0, 60, 3, 0, 0, 0, 0, 7, 16, 0\n16, 0, 0, 0, 0]"] ;
37 -> 38 ;
39 [label="X[22] <= 1.5\ngini = 0.7865\nsamples = 66\nvalue = [0, 16, 0, 0, 0, 18, 3, 0, 0, 0, 0, 6, 16, 0\n7, 0, 0, 0, 0]"] ;
38 -> 39 ;
40 [label="X[17] <= 1.5\ngini = 0.77\nsamples = 52\nvalue = [0, 16, 0, 0, 0, 4, 3, 0, 0, 0, 0, 6, 16, 0\n7, 0, 0, 0, 0]"] ;
39 -> 40 ;
41 [label="X[2] <= 1.5\ngini = 0.7231\nsamples = 46\nvalue = [0, 16, 0, 0, 0, 4, 3, 0, 0, 0, 0, 0, 16, 0\n7, 0, 0, 0, 0]"] ;
40 -> 41 ;
42 [label="X[4] <= 1.5\ngini = 0.5565\nsamples = 29\nvalue = [0, 15, 0, 0, 0, 2, 0, 0, 0, 0, 0, 0, 12, 0\n0, 0, 0, 0, 0]"] ;
41 -> 42 ;
43 [label="X[6] <= 3.5\ngini = 0.2778\nsamples = 6\nvalue = [0, 0, 0, 0, 0, 1, 0, 0, 0, 0, 0, 0, 5, 0, 0\n0, 0, 0, 0]"] ;
42 -> 43 ;
44 [label="gini = 0.0\nsamples = 5\nvalue = [0, 0, 0, 0, 0, 0, 0, 0, 0, 0, 0, 0, 5, 0, 0\n0, 0, 0, 0]"] ;
43 -> 44 ;
45 [label="gini = 0.0\nsamples = 1\nvalue = [0, 0, 0, 0, 0, 1, 0, 0, 0, 0, 0, 0, 0, 0, 0\n0, 0, 0, 0]"] ;
43 -> 45 ;
46 [label="X[18] <= 1.5\ngini = 0.4802\nsamples = 23\nvalue = [0, 15, 0, 0, 0, 1, 0, 0, 0, 0, 0, 0, 7, 0\n0, 0, 0, 0, 0]"] ;
42 -> 46 ;
47 [label="gini = 0.0\nsamples = 1\nvalue = [0, 0, 0, 0, 0, 1, 0, 0, 0, 0, 0, 0, 0, 0, 0\n0, 0, 0, 0]"] ;
46 -> 47 ;
48 [label="X[15] <= 1.5\ngini = 0.4339\nsamples = 22\nvalue = [0, 15, 0, 0, 0, 0, 0, 0, 0, 0, 0, 0, 7, 0\n0, 0, 0, 0, 0]"] ;
46 -> 48 ;
49 [label="X[3] <= 2.0\ngini = 0.455\nsamples = 20\nvalue = [0, 13, 0, 0, 0, 0, 0, 0, 0, 0, 0, 0, 7, 0\n0, 0, 0, 0, 0]"] ;
48 -> 49 ;
50 [label="gini = 0.0\nsamples = 2\nvalue = [0, 2, 0, 0, 0, 0, 0, 0, 0, 0, 0, 0, 0, 0, 0\n0, 0, 0, 0]"] ;
49 -> 50 ;
51 [label="X[6] <= 3.5\ngini = 0.4753\nsamples = 18\nvalue = [0, 11, 0, 0, 0, 0, 0, 0, 0, 0, 0, 0, 7, 0\n0, 0, 0, 0, 0]"] ;
49 -> 51 ;
52 [label="X[5] <= 2.5\ngini = 0.4444\nsamples = 15\nvalue = [0, 10, 0, 0, 0, 0, 0, 0, 0, 0, 0, 0, 5, 0\n0, 0, 0, 0, 0]"] ;
51 -> 52 ;
53 [label="X[6] <= 1.5\ngini = 0.5\nsamples = 6\nvalue = [0, 3, 0, 0, 0, 0, 0, 0, 0, 0, 0, 0, 3, 0, 0\n0, 0, 0, 0]"] ;
52 -> 53 ;
54 [label="gini = 0.0\nsamples = 1\nvalue = [0, 0, 0, 0, 0, 0, 0, 0, 0, 0, 0, 0, 1, 0, 0\n0, 0, 0, 0]"] ;
53 -> 54 ;
55 [label="X[1] <= 1.5\ngini = 0.48\nsamples = 5\nvalue = [0, 3, 0, 0, 0, 0, 0, 0, 0, 0, 0, 0, 2, 0, 0\n0, 0, 0, 0]"] ;
53 -> 55 ;
56 [label="X[6] <= 2.5\ngini = 0.5\nsamples = 4\nvalue = [0, 2, 0, 0, 0, 0, 0, 0, 0, 0, 0, 0, 2, 0, 0\n0, 0, 0, 0]"] ;
55 -> 56 ;
57 [label="X[8] <= 1.5\ngini = 0.4444\nsamples = 3\nvalue = [0, 1, 0, 0, 0, 0, 0, 0, 0, 0, 0, 0, 2, 0, 0\n0, 0, 0, 0]"] ;
56 -> 57 ;
58 [label="gini = 0.0\nsamples = 1\nvalue = [0, 1, 0, 0, 0, 0, 0, 0, 0, 0, 0, 0, 0, 0, 0\n0, 0, 0, 0]"] ;
57 -> 58 ;
59 [label="gini = 0.0\nsamples = 2\nvalue = [0, 0, 0, 0, 0, 0, 0, 0, 0, 0, 0, 0, 2, 0, 0\n0, 0, 0, 0]"] ;
57 -> 59 ;
60 [label="gini = 0.0\nsamples = 1\nvalue = [0, 1, 0, 0, 0, 0, 0, 0, 0, 0, 0, 0, 0, 0, 0\n0, 0, 0, 0]"] ;
56 -> 60 ;
61 [label="gini = 0.0\nsamples = 1\nvalue = [0, 1, 0, 0, 0, 0, 0, 0, 0, 0, 0, 0, 0, 0, 0\n0, 0, 0, 0]"] ;
55 -> 61 ;
62 [label="X[5] <= 3.5\ngini = 0.3457\nsamples = 9\nvalue = [0, 7, 0, 0, 0, 0, 0, 0, 0, 0, 0, 0, 2, 0, 0\n0, 0, 0, 0]"] ;
52 -> 62 ;
63 [label="gini = 0.0\nsamples = 4\nvalue = [0, 4, 0, 0, 0, 0, 0, 0, 0, 0, 0, 0, 0, 0, 0\n0, 0, 0, 0]"] ;
62 -> 63 ;
64 [label="X[9] <= 0.5\ngini = 0.48\nsamples = 5\nvalue = [0, 3, 0, 0, 0, 0, 0, 0, 0, 0, 0, 0, 2, 0, 0\n0, 0, 0, 0]"] ;
62 -> 64 ;
65 [label="gini = 0.0\nsamples = 2\nvalue = [0, 0, 0, 0, 0, 0, 0, 0, 0, 0, 0, 0, 2, 0, 0\n0, 0, 0, 0]"] ;
64 -> 65 ;
66 [label="gini = 0.0\nsamples = 3\nvalue = [0, 3, 0, 0, 0, 0, 0, 0, 0, 0, 0, 0, 0, 0, 0\n0, 0, 0, 0]"] ;
64 -> 66 ;
67 [label="X[1] <= 1.5\ngini = 0.4444\nsamples = 3\nvalue = [0, 1, 0, 0, 0, 0, 0, 0, 0, 0, 0, 0, 2, 0, 0\n0, 0, 0, 0]"] ;
51 -> 67 ;
68 [label="gini = 0.0\nsamples = 1\nvalue = [0, 1, 0, 0, 0, 0, 0, 0, 0, 0, 0, 0, 0, 0, 0\n0, 0, 0, 0]"] ;
67 -> 68 ;
69 [label="gini = 0.0\nsamples = 2\nvalue = [0, 0, 0, 0, 0, 0, 0, 0, 0, 0, 0, 0, 2, 0, 0\n0, 0, 0, 0]"] ;
67 -> 69 ;
70 [label="gini = 0.0\nsamples = 2\nvalue = [0, 2, 0, 0, 0, 0, 0, 0, 0, 0, 0, 0, 0, 0, 0\n0, 0, 0, 0]"] ;
48 -> 70 ;
71 [label="X[28] <= 2.5\ngini = 0.7266\nsamples = 17\nvalue = [0, 1, 0, 0, 0, 2, 3, 0, 0, 0, 0, 0, 4, 0, 7\n0, 0, 0, 0]"] ;
41 -> 71 ;
72 [label="X[6] <= 1.5\ngini = 0.6429\nsamples = 14\nvalue = [0, 1, 0, 0, 0, 2, 0, 0, 0, 0, 0, 0, 4, 0, 7\n0, 0, 0, 0]"] ;
71 -> 72 ;
73 [label="gini = 0.0\nsamples = 3\nvalue = [0, 0, 0, 0, 0, 0, 0, 0, 0, 0, 0, 0, 3, 0, 0\n0, 0, 0, 0]"] ;
72 -> 73 ;
74 [label="X[0] <= 1.5\ngini = 0.5455\nsamples = 11\nvalue = [0, 1, 0, 0, 0, 2, 0, 0, 0, 0, 0, 0, 1, 0, 7\n0, 0, 0, 0]"] ;
72 -> 74 ;
75 [label="gini = 0.0\nsamples = 2\nvalue = [0, 0, 0, 0, 0, 2, 0, 0, 0, 0, 0, 0, 0, 0, 0\n0, 0, 0, 0]"] ;
74 -> 75 ;
76 [label="X[7] <= 1.5\ngini = 0.3704\nsamples = 9\nvalue = [0, 1, 0, 0, 0, 0, 0, 0, 0, 0, 0, 0, 1, 0, 7\n0, 0, 0, 0]"] ;
74 -> 76 ;
77 [label="gini = 0.0\nsamples = 7\nvalue = [0, 0, 0, 0, 0, 0, 0, 0, 0, 0, 0, 0, 0, 0, 7\n0, 0, 0, 0]"] ;
76 -> 77 ;
78 [label="X[8] <= 1.5\ngini = 0.5\nsamples = 2\nvalue = [0, 1, 0, 0, 0, 0, 0, 0, 0, 0, 0, 0, 1, 0, 0\n0, 0, 0, 0]"] ;
76 -> 78 ;
79 [label="gini = 0.0\nsamples = 1\nvalue = [0, 0, 0, 0, 0, 0, 0, 0, 0, 0, 0, 0, 1, 0, 0\n0, 0, 0, 0]"] ;
78 -> 79 ;
80 [label="gini = 0.0\nsamples = 1\nvalue = [0, 1, 0, 0, 0, 0, 0, 0, 0, 0, 0, 0, 0, 0, 0\n0, 0, 0, 0]"] ;
78 -> 80 ;
81 [label="gini = 0.0\nsamples = 3\nvalue = [0, 0, 0, 0, 0, 0, 3, 0, 0, 0, 0, 0, 0, 0, 0\n0, 0, 0, 0]"] ;
71 -> 81 ;
82 [label="gini = 0.0\nsamples = 6\nvalue = [0, 0, 0, 0, 0, 0, 0, 0, 0, 0, 0, 6, 0, 0, 0\n0, 0, 0, 0]"] ;
40 -> 82 ;
83 [label="gini = 0.0\nsamples = 14\nvalue = [0, 0, 0, 0, 0, 14, 0, 0, 0, 0, 0, 0, 0, 0\n0, 0, 0, 0, 0]"] ;
39 -> 83 ;
84 [label="X[2] <= 1.5\ngini = 0.3173\nsamples = 52\nvalue = [0, 0, 0, 0, 0, 42, 0, 0, 0, 0, 0, 1, 0, 0\n9, 0, 0, 0, 0]"] ;
38 -> 84 ;
85 [label="X[12] <= 2.5\ngini = 0.0487\nsamples = 40\nvalue = [0, 0, 0, 0, 0, 39, 0, 0, 0, 0, 0, 1, 0, 0\n0, 0, 0, 0, 0]"] ;
84 -> 85 ;
86 [label="gini = 0.0\nsamples = 39\nvalue = [0, 0, 0, 0, 0, 39, 0, 0, 0, 0, 0, 0, 0, 0\n0, 0, 0, 0, 0]"] ;
85 -> 86 ;
87 [label="gini = 0.0\nsamples = 1\nvalue = [0, 0, 0, 0, 0, 0, 0, 0, 0, 0, 0, 1, 0, 0, 0\n0, 0, 0, 0]"] ;
85 -> 87 ;
88 [label="X[3] <= 2.0\ngini = 0.375\nsamples = 12\nvalue = [0, 0, 0, 0, 0, 3, 0, 0, 0, 0, 0, 0, 0, 0, 9\n0, 0, 0, 0]"] ;
84 -> 88 ;
89 [label="gini = 0.0\nsamples = 5\nvalue = [0, 0, 0, 0, 0, 0, 0, 0, 0, 0, 0, 0, 0, 0, 5\n0, 0, 0, 0]"] ;
88 -> 89 ;
90 [label="X[6] <= 3.5\ngini = 0.4898\nsamples = 7\nvalue = [0, 0, 0, 0, 0, 3, 0, 0, 0, 0, 0, 0, 0, 0, 4\n0, 0, 0, 0]"] ;
88 -> 90 ;
91 [label="X[4] <= 1.5\ngini = 0.48\nsamples = 5\nvalue = [0, 0, 0, 0, 0, 3, 0, 0, 0, 0, 0, 0, 0, 0, 2\n0, 0, 0, 0]"] ;
90 -> 91 ;
92 [label="gini = 0.0\nsamples = 2\nvalue = [0, 0, 0, 0, 0, 2, 0, 0, 0, 0, 0, 0, 0, 0, 0\n0, 0, 0, 0]"] ;
91 -> 92 ;
93 [label="X[8] <= 2.5\ngini = 0.4444\nsamples = 3\nvalue = [0, 0, 0, 0, 0, 1, 0, 0, 0, 0, 0, 0, 0, 0, 2\n0, 0, 0, 0]"] ;
91 -> 93 ;
94 [label="gini = 0.0\nsamples = 2\nvalue = [0, 0, 0, 0, 0, 0, 0, 0, 0, 0, 0, 0, 0, 0, 2\n0, 0, 0, 0]"] ;
93 -> 94 ;
95 [label="gini = 0.0\nsamples = 1\nvalue = [0, 0, 0, 0, 0, 1, 0, 0, 0, 0, 0, 0, 0, 0, 0\n0, 0, 0, 0]"] ;
93 -> 95 ;
96 [label="gini = 0.0\nsamples = 2\nvalue = [0, 0, 0, 0, 0, 0, 0, 0, 0, 0, 0, 0, 0, 0, 2\n0, 0, 0, 0]"] ;
90 -> 96 ;
97 [label="X[32] <= 1.5\ngini = 0.3984\nsamples = 16\nvalue = [0, 0, 0, 12, 3, 0, 0, 0, 0, 0, 0, 0, 0, 0\n0, 0, 0, 1, 0]"] ;
37 -> 97 ;
98 [label="gini = 0.0\nsamples = 2\nvalue = [0, 0, 0, 0, 2, 0, 0, 0, 0, 0, 0, 0, 0, 0, 0\n0, 0, 0, 0]"] ;
97 -> 98 ;
99 [label="X[21] <= 3.5\ngini = 0.2551\nsamples = 14\nvalue = [0, 0, 0, 12, 1, 0, 0, 0, 0, 0, 0, 0, 0, 0\n0, 0, 0, 1, 0]"] ;
97 -> 99 ;
100 [label="X[34] <= 2.5\ngini = 0.142\nsamples = 13\nvalue = [0, 0, 0, 12, 1, 0, 0, 0, 0, 0, 0, 0, 0, 0\n0, 0, 0, 0, 0]"] ;
99 -> 100 ;
101 [label="gini = 0.0\nsamples = 12\nvalue = [0, 0, 0, 12, 0, 0, 0, 0, 0, 0, 0, 0, 0, 0\n0, 0, 0, 0, 0]"] ;
100 -> 101 ;
102 [label="gini = 0.0\nsamples = 1\nvalue = [0, 0, 0, 0, 1, 0, 0, 0, 0, 0, 0, 0, 0, 0, 0\n0, 0, 0, 0]"] ;
100 -> 102 ;
103 [label="gini = 0.0\nsamples = 1\nvalue = [0, 0, 0, 0, 0, 0, 0, 0, 0, 0, 0, 0, 0, 0, 0\n0, 0, 1, 0]"] ;
99 -> 103 ;
104 [label="X[22] <= 1.5\ngini = 0.4402\nsamples = 72\nvalue = [0, 53, 0, 2, 0, 6, 1, 0, 0, 0, 0, 4, 6, 0\n0, 0, 0, 0, 0]"] ;
36 -> 104 ;
105 [label="X[17] <= 1.5\ngini = 0.3421\nsamples = 66\nvalue = [0, 53, 0, 2, 0, 0, 1, 0, 0, 0, 0, 4, 6, 0\n0, 0, 0, 0, 0]"] ;
104 -> 105 ;
106 [label="X[10] <= 1.5\ngini = 0.2586\nsamples = 62\nvalue = [0, 53, 0, 2, 0, 0, 1, 0, 0, 0, 0, 0, 6, 0\n0, 0, 0, 0, 0]"] ;
105 -> 106 ;
107 [label="X[4] <= 1.5\ngini = 0.4444\nsamples = 3\nvalue = [0, 0, 0, 2, 0, 0, 1, 0, 0, 0, 0, 0, 0, 0, 0\n0, 0, 0, 0]"] ;
106 -> 107 ;
108 [label="gini = 0.0\nsamples = 2\nvalue = [0, 0, 0, 2, 0, 0, 0, 0, 0, 0, 0, 0, 0, 0, 0\n0, 0, 0, 0]"] ;
107 -> 108 ;
109 [label="gini = 0.0\nsamples = 1\nvalue = [0, 0, 0, 0, 0, 0, 1, 0, 0, 0, 0, 0, 0, 0, 0\n0, 0, 0, 0]"] ;
107 -> 109 ;
110 [label="X[3] <= 2.0\ngini = 0.1827\nsamples = 59\nvalue = [0, 53, 0, 0, 0, 0, 0, 0, 0, 0, 0, 0, 6, 0\n0, 0, 0, 0, 0]"] ;
106 -> 110 ;
111 [label="gini = 0.0\nsamples = 37\nvalue = [0, 37, 0, 0, 0, 0, 0, 0, 0, 0, 0, 0, 0, 0\n0, 0, 0, 0, 0]"] ;
110 -> 111 ;
112 [label="X[15] <= 1.5\ngini = 0.3967\nsamples = 22\nvalue = [0, 16, 0, 0, 0, 0, 0, 0, 0, 0, 0, 0, 6, 0\n0, 0, 0, 0, 0]"] ;
110 -> 112 ;
113 [label="X[4] <= 1.5\ngini = 0.48\nsamples = 15\nvalue = [0, 9, 0, 0, 0, 0, 0, 0, 0, 0, 0, 0, 6, 0, 0\n0, 0, 0, 0]"] ;
112 -> 113 ;
114 [label="gini = 0.0\nsamples = 4\nvalue = [0, 4, 0, 0, 0, 0, 0, 0, 0, 0, 0, 0, 0, 0, 0\n0, 0, 0, 0]"] ;
113 -> 114 ;
115 [label="X[0] <= 6.5\ngini = 0.4959\nsamples = 11\nvalue = [0, 5, 0, 0, 0, 0, 0, 0, 0, 0, 0, 0, 6, 0, 0\n0, 0, 0, 0]"] ;
113 -> 115 ;
116 [label="X[2] <= 2.0\ngini = 0.375\nsamples = 4\nvalue = [0, 3, 0, 0, 0, 0, 0, 0, 0, 0, 0, 0, 1, 0, 0\n0, 0, 0, 0]"] ;
115 -> 116 ;
117 [label="gini = 0.0\nsamples = 3\nvalue = [0, 3, 0, 0, 0, 0, 0, 0, 0, 0, 0, 0, 0, 0, 0\n0, 0, 0, 0]"] ;
116 -> 117 ;
118 [label="gini = 0.0\nsamples = 1\nvalue = [0, 0, 0, 0, 0, 0, 0, 0, 0, 0, 0, 0, 1, 0, 0\n0, 0, 0, 0]"] ;
116 -> 118 ;
119 [label="X[7] <= 1.5\ngini = 0.4082\nsamples = 7\nvalue = [0, 2, 0, 0, 0, 0, 0, 0, 0, 0, 0, 0, 5, 0, 0\n0, 0, 0, 0]"] ;
115 -> 119 ;
120 [label="X[5] <= 2.5\ngini = 0.48\nsamples = 5\nvalue = [0, 2, 0, 0, 0, 0, 0, 0, 0, 0, 0, 0, 3, 0, 0\n0, 0, 0, 0]"] ;
119 -> 120 ;
121 [label="gini = 0.0\nsamples = 2\nvalue = [0, 0, 0, 0, 0, 0, 0, 0, 0, 0, 0, 0, 2, 0, 0\n0, 0, 0, 0]"] ;
120 -> 121 ;
122 [label="X[23] <= 1.5\ngini = 0.4444\nsamples = 3\nvalue = [0, 2, 0, 0, 0, 0, 0, 0, 0, 0, 0, 0, 1, 0, 0\n0, 0, 0, 0]"] ;
120 -> 122 ;
123 [label="gini = 0.0\nsamples = 2\nvalue = [0, 2, 0, 0, 0, 0, 0, 0, 0, 0, 0, 0, 0, 0, 0\n0, 0, 0, 0]"] ;
122 -> 123 ;
124 [label="gini = 0.0\nsamples = 1\nvalue = [0, 0, 0, 0, 0, 0, 0, 0, 0, 0, 0, 0, 1, 0, 0\n0, 0, 0, 0]"] ;
122 -> 124 ;
125 [label="gini = 0.0\nsamples = 2\nvalue = [0, 0, 0, 0, 0, 0, 0, 0, 0, 0, 0, 0, 2, 0, 0\n0, 0, 0, 0]"] ;
119 -> 125 ;
126 [label="gini = 0.0\nsamples = 7\nvalue = [0, 7, 0, 0, 0, 0, 0, 0, 0, 0, 0, 0, 0, 0, 0\n0, 0, 0, 0]"] ;
112 -> 126 ;
127 [label="gini = 0.0\nsamples = 4\nvalue = [0, 0, 0, 0, 0, 0, 0, 0, 0, 0, 0, 4, 0, 0, 0\n0, 0, 0, 0]"] ;
105 -> 127 ;
128 [label="gini = 0.0\nsamples = 6\nvalue = [0, 0, 0, 0, 0, 6, 0, 0, 0, 0, 0, 0, 0, 0, 0\n0, 0, 0, 0]"] ;
104 -> 128 ;
}